<?xml version="1.0"?>
<opencv_storage>
<cascade type_id="opencv-cascade-classifier">
  <stageType>BOOST</stageType>
  <featureType>HAAR</featureType>
  <height>24</height>
  <width>48</width>
  <stageParams>
    <boostType>GAB</boostType>
    <minHitRate>9.9500000476837158e-01</minHitRate>
    <maxFalseAlarm>5.0000000000000000e-01</maxFalseAlarm>
    <weightTrimRate>9.4999999999999996e-01</weightTrimRate>
    <maxDepth>1</maxDepth>
    <maxWeakCount>100</maxWeakCount></stageParams>
  <featureParams>
    <maxCatCount>0</maxCatCount>
    <featSize>1</featSize>
    <mode>BASIC</mode></featureParams>
  <stageNum>2</stageNum>
  <stages>
    <!-- stage 0 -->
    <_>
      <maxWeakCount>3</maxWeakCount>
      <stageThreshold>-7.4069344997406006e-01</stageThreshold>
      <weakClassifiers>
        <_>
          <internalNodes>
            0 -1 3 2.8178367763757706e-02</internalNodes>
          <leafValues>
            -7.9029124975204468e-01 8.3917528390884399e-01</leafValues></_>
        <_>
          <internalNodes>
            0 -1 0 -4.5335711911320686e-03</internalNodes>
          <leafValues>
            6.3911360502243042e-01 -6.7778760194778442e-01</leafValues></_>
        <_>
          <internalNodes>
            0 -1 5 -4.1540041565895081e-03</internalNodes>
          <leafValues>
            7.2738534212112427e-01 -5.3780108690261841e-01</leafValues></_></weakClassifiers></_>
    <!-- stage 1 -->
    <_>
      <maxWeakCount>6</maxWeakCount>
      <stageThreshold>-9.7030329704284668e-01</stageThreshold>
      <weakClassifiers>
        <_>
          <internalNodes>
            0 -1 6 2.9032733291387558e-02</internalNodes>
          <leafValues>
            -6.7139959335327148e-01 6.5285998582839966e-01</leafValues></_>
        <_>
          <internalNodes>
            0 -1 8 3.8113645277917385e-03</internalNodes>
          <leafValues>
            -6.0331761837005615e-01 5.2415812015533447e-01</leafValues></_>
        <_>
          <internalNodes>
            0 -1 2 -6.1690378934144974e-02</internalNodes>
          <leafValues>
            7.0331072807312012e-01 -4.2998874187469482e-01</leafValues></_>
        <_>
          <internalNodes>
            0 -1 4 -1.5530547825619578e-03</internalNodes>
          <leafValues>
            6.9212526082992554e-01 -4.1894492506980896e-01</leafValues></_>
        <_>
          <internalNodes>
            0 -1 1 -9.0559674426913261e-03</internalNodes>
          <leafValues>
            7.0601588487625122e-01 -3.1723442673683167e-01</leafValues></_>
        <_>
          <internalNodes>
            0 -1 7 -3.3452705247327685e-04</internalNodes>
          <leafValues>
            -8.7085616588592529e-01 3.5951182246208191e-01</leafValues></_></weakClassifiers></_></stages>
  <features>
    <_>
      <rects>
        <_>
          0 18 10 3 -1.</_>
        <_>
          5 18 5 3 2.</_></rects>
      <tilted>0</tilted></_>
    <_>
      <rects>
        <_>
          1 14 6 5 -1.</_>
        <_>
          4 14 3 5 2.</_></rects>
      <tilted>0</tilted></_>
    <_>
      <rects>
        <_>
          5 12 35 6 -1.</_>
        <_>
          5 15 35 3 2.</_></rects>
      <tilted>0</tilted></_>
    <_>
      <rects>
        <_>
          9 20 31 4 -1.</_>
        <_>
          9 22 31 2 2.</_></rects>
      <tilted>0</tilted></_>
    <_>
      <rects>
        <_>
          11 17 4 2 -1.</_>
        <_>
          13 17 2 2 2.</_></rects>
      <tilted>0</tilted></_>
    <_>
      <rects>
        <_>
          12 11 2 6 -1.</_>
        <_>
          12 14 2 3 2.</_></rects>
      <tilted>0</tilted></_>
    <_>
      <rects>
        <_>
          14 20 22 4 -1.</_>
        <_>
          14 22 22 2 2.</_></rects>
      <tilted>0</tilted></_>
    <_>
      <rects>
        <_>
          25 16 2 4 -1.</_>
        <_>
          26 16 1 4 2.</_></rects>
      <tilted>0</tilted></_>
    <_>
      <rects>
        <_>
          39 18 8 4 -1.</_>
        <_>
          43 18 4 4 2.</_></rects>
      <tilted>0</tilted></_></features></cascade>
</opencv_storage>
